-0.154518635477871
0.0489197619259358
0.0437098931521177
0.0493517766706645
0.144366153422743
0.0561242421157658
-0.196201697457582
-0.106979797594249
0.066433503292501
0.0057004565373063
0.077436516713351
0.0179899342358112
-0.0869065665639937
0.169373393710703
-0.0830736638978124
0.134918251261115
-0.0855106861330569
-0.0932716879993677
-0.125310884136707
-0.107109635788947
-0.073355018068105
-0.0789226517081261
-0.136381598841399
-0.184001632779837
-0.112480183597654
0.12423942098394
0.0102790187112987
0.165863266400993
0.132538018748164
-0.181691894680262
-0.0175634070299566
-0.0939253312535584
-0.0781311187893152
0.00292274802923204
-0.127561516687274
0.103868254180998
-0.119500784948468
-0.0964760725386441
0.196860167011619
0.122940936125815
0.0213334362953901
0.0585624376311898
-0.0752702771686018
0.0487276792526245
-0.0680919297039509
0.000798989180475468
0.0708378109149635
-0.00600350433960556
-0.102428469061852
0.106183915026486
-0.170488047972322
-0.0761253592558205
0.0869086973369121
0.00181836485862732
-0.138800416421145
0.00157339526340367
-0.00241563078016044
0.100480078812689
-0.130140070430934
0.139356964174658
0.145933532807976
-0.183257089927793
-0.0731271378695965
-0.194500024337322
-0.10438970932737
0.0825978469103575
-0.0767620971426368
0.00341902626678348
-0.179341352265328
0.0258279359899461
-0.151407925132662
0.157134552672505
-0.194149097707123
0.113248441461474
-0.164015466812998
0.00767599232494831
-0.0462933249771595
-0.171979001071304
-0.0717422311194241
0.0673981588333845
0.170560190547258
-0.0112361115403473
-0.142953862715513
0.0177079020068049
-0.121530139259994
0.159432195685804
-0.0442000861279666
-0.0756516881287098
-0.135988534800708
0.15847433982417
-0.13344248784706
0.160169838462025
-0.1463687219657
-0.147354346327484
-0.157884998992085
0.00463343244045972
-0.079920378420502
-0.189313241839409
-0.0761410274542868
0.0968478628434241
-0.185817309189588
0.0260304448194802
-0.0878968895412982
-0.118321473430842
-0.146504440531135
-0.069727230258286
-0.137975212186575
-0.148015144187957
-0.0257875761017203
-0.184542938973755
0.0853206251747906
-0.159692383557558
0.180121975392103
-0.151272894907743
-0.112137351650745
0.165235106740147
0.178341248445213
-0.0883375108242035
-0.15061156488955
0.118864183779806
0.0977108860388398
0.166389689501375
0.197839298006147
0.176944286003709
-0.00554583696648478
-0.0866161828860641
-0.0993817195296288
0.00130206830799579
-0.0012135307304561
-0.0726216761395335
0.184889130759984
0.0536397472955287
-0.149026640783995
-0.0307812024839222
0.165726763848215
-0.0128830666653812
0.163267658185214
0.0390973134897649
0.0526971263810992
0.147663327492774
0.00109992902725936
0.193454045895487
-0.0702455890364945
-0.0074500205926597
-0.0572051689960063
0.0509910736232996
0.0966400762088597
0.0263867269270122
0.1923146026209
0.0307250942103565
-0.0243831792846322
-0.10856012199074
-0.167136773746461
0.14010596871376
-0.106135495379567
0.195266978722066
0.040759018342942
0.199496323242784
-0.04976024935022
0.0220506523735821
-0.0282224148511886
0.0303511123172939
-0.0269970410503447
-0.110061694402248
-0.16600610492751
0.0549193038605154
-0.0275934518314898
-0.170913562551141
0.120960807707161
-0.0698886786587536
0.102915614005178
0.0337086069397628
0.0835357626900077
-0.029209693428129
-0.0625709191896021
0.103647994063795
-0.0303879167884588
0.0243549015372992
-0.153545690234751
-0.0787912809289992
-0.00847892565652728
-0.0620677812956274
0.040285656042397
-0.169566670712084
0.182397044450045
-0.191117270756513
0.136684252973646
0.0529769795015455
-0.0759623339399695
0.0970277464948595
0.0555645254440605
0.197006394900382
-0.148692084662616
0.153295831102878
0.124033355154097
0.128740471322089
0.133881064970046
0.0930928882211447
0.193217609729618
0.0556818330660462
0.0643018537200987
0.0113437511958182
-0.0730024714022875
0.107142187654972
0.0105233970098197
0.0929207537323237
-0.0769337037578225
-0.0383306995034218
-0.118239021860063
0.194253235310316
0.026524302829057
-0.0878499419428408
-0.125977710727602
0.103224558476359
0.0267125125043094
0.172869428433478
0.0554773265495896
0.0802992537617683
-0.00831101257354022
0.140124766528606
-0.0310677298344672
-0.187443150766194
-0.0967413406819105
-0.0660621060989797
-0.146580132562667
-0.000181445851922035
0.120854253135622
-0.0651387027464807
0.00356824612244963
-0.00222457526251674
0.118821161612868
0.0267835581675172
-0.157321272790432
0.123059378098696
0.026844828389585
-0.115103628858924
0.0998317019082606
-0.0771126599982381
-0.0041926226578653
0.195883957110345
-0.0303563287481666
-0.10223879814148
-0.113146114069968
0.0756470026448369
0.192085083480924
-0.00918678427115083
0.109409448783845
0.0297251778654754
0.186375880241394
0.118769536353648
0.0127620348706841
0.0386495044454932
-0.0944454105570912
-0.0881829164922237
-0.173958702292293
0.0252325385808945
-0.0950577271170914
-0.198687067534775
0.0358066174201667
0.00802046591416
0.137853893917054
-0.188177274540067
0.0399077396839857
-0.0926320921629667
-0.151756438240409
-0.159717815369368
0.0992644561454654
-0.193615748267621
-0.180215541739017
0.099049514438957
-0.0571049344725907
0.103583278413862
-0.049617462977767
0.11978508355096
-0.189722893759608
0.00254342006519437
0.128491458576173
0.0179026304744184
-0.0933262182399631
-0.0621450711973011
-0.0523296188563108
-0.0282991661690176
0.167405749298632
0.113737926166505
0.0951326129026711
-0.0876909504644573
-0.0172693487256765
-0.0849849433638156
0.0785164270550013
0.128302519302815
0.0620614126324653
-0.0345981290563941
0.180731765832752
-0.102756215911359
0.0434740106575191
0.103180587571114
0.0774669446982443
-0.153828881494701
0.0543646657839417
-0.0763898526318371
-0.0588005991652608
0.192383326496929
0.0155531054362655
-0.0223864547908306
0.179746711067855
-0.0190066514536738
-0.123749678581953
0.196643659844995
0.0193821790628135
0.107526306807995
0.165368669107556
0.0728448008187115
-0.0370994318276644
-0.0369630802422762
-0.141566883865744
-0.121332914382219
-0.123116264212877
-0.0366342397406697
-0.0607114775106311
0.133817139361054
-0.120639997161925
0.144722123816609
-0.0411258758977056
-0.138698493223637
-0.0642866467125714
-0.0531278241425753
-0.0290483668446541
-0.125465238280594
0.0632066401652992
0.168164552468807
0.0935576250776649
0.152927708625793
0.181338612455875
-0.122039385978132
-0.0109533058479428
-0.045579737611115
-0.0503336571156979
-0.188857737369835
0.171742084715515
-0.0357882897369564
0.182336086407304
-0.0911388639360666
0.00689859753474592
0.191323936916888
-0.0521214054897428
-0.0758278243243694
-0.186316146980971
0.0670263390056789
0.168366550747305
-0.182004160806537
-0.119546947255731
0.0974059537053108
-0.147777267545462
0.0835534375160932
0.199532724544406
0.177565218415111
0.0371615596115589
0.0925182545557618
-0.00530632976442574
0.107260798383504
-0.198741815052927
0.0231765192933381
-0.0158978843130171
-0.0681139419786632
0.13419025093317
0.19108066521585
0.0642059789039194
-0.10657005617395
0.127680168114603
0.0898739580065012
0.190542861260474
-0.0939547885209322
0.151528017036617
-0.00484431507065891
-0.0778126858174801
-0.0419612004421651
0.103735886421055
-0.159679343085736
-0.0314561238512397
0.0631056990474462
-0.0818943631835282
-0.117605400085449
-0.199141315277666
-0.156862928532064
-0.114053191244602
-0.153938530478626
0.0748637726530433
-0.122691107913852
0.193968757335097
0.178815190307796
0.0766827876679599
0.0959567774087191
0.0929761193692684
0.0610393775627017
-0.133181477244943
0.169272343255579
0.0258419383317232
0.0145982541143894
-0.192462501116097
-0.0534401489421725
0.0744969097897411
-0.0333485106937587
0.102810498513281
0.110317947156727
0.0294348079711199
-0.124520482961088
0.103306133579463
-0.162926762830466
0.0489434106275439
-0.0336347193457186
0.110604348219931
0.123121120780706
0.186918528098613
-0.113638699520379
0.14680356439203
-0.0332327886484563
0.00521148638799787
0.109974928200245
-0.146982672903687
-0.0352369431406259
0.0648190293461084
0.163087906781584
-0.0622033450752497
-0.157902774307877
0.172938368748873
-0.120026690885425
-0.178392677102238
-0.0296639696694911
-0.0644816720858216
-0.0897594789043069
0.0653962168842554
0.113558438792825
-0.0241210533306003
0.172129547037184
-0.0911171177402139
0.0636116117238998
-0.0478842823766172
0.174156310968101
0.0942003719508648
0.0360361813567579
0.125860965903848
0.152963531855494
0.0981765234842896
0.000716624315828085
0.195400589331985
0.0221072203479707
0.151880733203143
0.0521757055073976
0.0452862127684057
-0.186556280124933
-0.0981197257526219
0.110387520492077
0.199298000335693
0.184047360625118
0.10037152543664
0.072201544418931
-0.101245418377221
0.042625190783292
0.0295882253907621
-0.180162036698312
-0.0508719420060516
0.157907219510525
-0.0432913017459214
0.00677810823544861
-0.12988796941936
-0.122957814577967
0.0186034782789647
-0.0427516644820571
0.0500789986923337
0.0288819090463221
-0.143752371799201
-0.084291332308203
-0.199755137693137
0.182145486865193
-0.0402360199950635
0.190821418166161
0.00470967954024673
-0.013135524559766
0.0895341974683106
-0.14317057877779
0.00943111171945929
0.0241684480570257
0.0641371223144233
-0.0510937192477286
-0.145539202727377
-0.170447629597038
0.104604872036725
0.0811179651878774
0.105558104719967
-0.137177496682853
0.0397378426045179
0.105336714722216
0.165061195287854
-0.0767916601151228
0.062826350145042
-0.0648781483992934
0.0417001527734101
-0.16641799248755
0.0422668942250311
0.0383644105866551
0.067567659728229
0.120417318399996
0.142182354163378
-0.179944035969675
0.0697736341506243
0.138357319310308
0.0985593270510435
0.131825761590153
-0.148839949630201
0.11764337522909
-0.0577976346947253
0.179232668504119
0.172063242364675
0.0369778196327388
-0.155802294332534
0.113534187152982
0.0407291763462126
-0.16469023199752
0.0629049102775753
-0.0671676252037287
0.134167612809688
-0.100890669506043
-0.0545636308379471
0.169859453476965
0.0252072031609714
0.122746143024415
-0.184428503829986
-0.184069824963808
0.0530171875841915
-0.104365290794522
-0.0989899991080165
0.0498498000204563
-0.0377240795642138
0.119389229267836
-0.153014823514968
0.197798912599683
0.0599429313093424
0.062244372535497
0.0989918494597077
0.00570928500965237
-0.0478679534047842
0.044523308146745
0.186400128435344
-0.113656533136964
0.0994997452013194
-0.0270497460849583
0.131438495591283
0.153336207848042
0.191915454249829
0.165600290615112
-0.0970053679309785
-0.110620872862637
0.116253167204559
-0.133962076436728
0.135230343788862
0.18876817561686
-0.000984709616750484
-0.184076780453324
0.05006263833493
0.132154363393784
-0.137675357237458
0.196081500500441
0.0723529348149896
0.145879174396396
-0.103335695248097
0.145031638909131
0.116834669187665
0.0449299066327512
-0.116576333995908
-0.176235149055719
0.0501149753108621
0.12157254582271
-0.120547750778496
0.0662600493989885
-0.0388268881477415
-0.0452149253338575
-0.175908634625375
-0.0318878352642059
0.0204389003105462
0.12643028749153
0.135118735767901
-0.195160774607211
0.0290792386978865
